digraph Tree {
node [shape=box, style="filled", color="black"] ;
0 [label="품종 <= 41.5\ngini = 0.47\nsamples = 288956\nvalue = [179940, 109016]\nclass = 1", fillcolor="#f5cdb1"] ;
1 [label="품종 <= 36.5\ngini = 0.441\nsamples = 231578\nvalue = [155533, 76045]\nclass = 1", fillcolor="#f2bf9a"] ;
0 -> 1 [labeldistance=2.5, labelangle=45, headlabel="True"] ;
3 [label="당시의나이 <= 5.5\ngini = 0.483\nsamples = 22404\nvalue = [9118, 13286]\nclass = 0", fillcolor="#c1e0f7"] ;
1 -> 3 ;
9 [label="gini = 0.449\nsamples = 17528\nvalue = [5960, 11568]\nclass = 0", fillcolor="#9fcff2"] ;
3 -> 9 ;
10 [label="gini = 0.456\nsamples = 4876\nvalue = [3158, 1718]\nclass = 1", fillcolor="#f3c6a5"] ;
3 -> 10 ;
4 [label="체중 <= 2.975\ngini = 0.42\nsamples = 209174\nvalue = [146415, 62759]\nclass = 1", fillcolor="#f0b78e"] ;
1 -> 4 ;
5 [label="gini = 0.471\nsamples = 69884\nvalue = [43296, 26588]\nclass = 1", fillcolor="#f5ceb3"] ;
4 -> 5 ;
6 [label="보호소형태 <= 0.5\ngini = 0.384\nsamples = 139290\nvalue = [103119, 36171]\nclass = 1", fillcolor="#eead7e"] ;
4 -> 6 ;
13 [label="체중 <= 5.995\ngini = 0.368\nsamples = 116926\nvalue = [88475, 28451]\nclass = 1", fillcolor="#edaa79"] ;
6 -> 13 ;
17 [label="gini = 0.399\nsamples = 55575\nvalue = [40258, 15317]\nclass = 1", fillcolor="#efb184"] ;
13 -> 17 ;
18 [label="gini = 0.336\nsamples = 61351\nvalue = [48217, 13134]\nclass = 1", fillcolor="#eca36f"] ;
13 -> 18 ;
14 [label="gini = 0.452\nsamples = 22364\nvalue = [14644, 7720]\nclass = 1", fillcolor="#f3c3a1"] ;
6 -> 14 ;
2 [label="당시의나이 <= 4.5\ngini = 0.489\nsamples = 57378\nvalue = [24407, 32971]\nclass = 0", fillcolor="#cce6f8"] ;
0 -> 2 [labeldistance=2.5, labelangle=-45, headlabel="False"] ;
7 [label="체중 <= 11.41\ngini = 0.468\nsamples = 43158\nvalue = [16137, 27021]\nclass = 0", fillcolor="#afd8f5"] ;
2 -> 7 ;
11 [label="gini = 0.446\nsamples = 33446\nvalue = [11204, 22242]\nclass = 0", fillcolor="#9dcef2"] ;
7 -> 11 ;
12 [label="품종 <= 117.5\ngini = 0.5\nsamples = 9712\nvalue = [4933, 4779]\nclass = 1", fillcolor="#fefbf9"] ;
7 -> 12 ;
15 [label="gini = 0.454\nsamples = 3135\nvalue = [1090, 2045]\nclass = 0", fillcolor="#a3d1f3"] ;
12 -> 15 ;
16 [label="gini = 0.486\nsamples = 6577\nvalue = [3843, 2734]\nclass = 1", fillcolor="#f7dbc6"] ;
12 -> 16 ;
8 [label="gini = 0.487\nsamples = 14220\nvalue = [8270, 5950]\nclass = 1", fillcolor="#f8dcc7"] ;
2 -> 8 ;
}